digraph Tree {
node [shape=box, style="filled, rounded", color="black", fontname="helvetica"] ;
edge [fontname="helvetica"] ;
0 [label="μT <= 0.987\ngini = 0.603\nsamples = 113\nvalue = [25, 61, 27]\nclass = LoC", fillcolor="#b1f5cd"] ;
1 [label="μR <= 3.045\ngini = 0.245\nsamples = 70\nvalue = [10, 60, 0]\nclass = LoC", fillcolor="#5ae996"] ;
0 -> 1 [labeldistance=2.5, labelangle=45, headlabel="True"] ;
2 [label="μR <= 2.362\ngini = 0.095\nsamples = 60\nvalue = [3, 57, 0]\nclass = LoC", fillcolor="#43e688"] ;
1 -> 2 ;
3 [label="σR <= 0.838\ngini = 0.355\nsamples = 13\nvalue = [3, 10, 0]\nclass = LoC", fillcolor="#74eda7"] ;
2 -> 3 ;
4 [label="gini = 0.0\nsamples = 10\nvalue = [0, 10, 0]\nclass = LoC", fillcolor="#39e581"] ;
3 -> 4 ;
5 [label="gini = 0.0\nsamples = 3\nvalue = [3, 0, 0]\nclass = SW", fillcolor="#e58139"] ;
3 -> 5 ;
6 [label="gini = 0.0\nsamples = 47\nvalue = [0, 47, 0]\nclass = LoC", fillcolor="#39e581"] ;
2 -> 6 ;
7 [label="σP <= 0.284\ngini = 0.42\nsamples = 10\nvalue = [7, 3, 0]\nclass = SW", fillcolor="#f0b78e"] ;
1 -> 7 ;
8 [label="μR <= 3.084\ngini = 0.375\nsamples = 4\nvalue = [1, 3, 0]\nclass = LoC", fillcolor="#7beeab"] ;
7 -> 8 ;
9 [label="gini = 0.0\nsamples = 1\nvalue = [1, 0, 0]\nclass = SW", fillcolor="#e58139"] ;
8 -> 9 ;
10 [label="gini = 0.0\nsamples = 3\nvalue = [0, 3, 0]\nclass = LoC", fillcolor="#39e581"] ;
8 -> 10 ;
11 [label="gini = 0.0\nsamples = 6\nvalue = [6, 0, 0]\nclass = SW", fillcolor="#e58139"] ;
7 -> 11 ;
12 [label="σR <= 0.792\ngini = 0.484\nsamples = 43\nvalue = [15, 1, 27]\nclass = OP", fillcolor="#c9aaf4"] ;
0 -> 12 [labeldistance=2.5, labelangle=-45, headlabel="False"] ;
13 [label="μP <= 1.405\ngini = 0.142\nsamples = 13\nvalue = [0, 1, 12]\nclass = OP", fillcolor="#8c49e7"] ;
12 -> 13 ;
14 [label="gini = 0.0\nsamples = 1\nvalue = [0, 1, 0]\nclass = LoC", fillcolor="#39e581"] ;
13 -> 14 ;
15 [label="gini = 0.0\nsamples = 12\nvalue = [0, 0, 12]\nclass = OP", fillcolor="#8139e5"] ;
13 -> 15 ;
16 [label="σR <= 1.227\ngini = 0.5\nsamples = 30\nvalue = [15, 0, 15]\nclass = SW", fillcolor="#ffffff"] ;
12 -> 16 ;
17 [label="μP <= 3.247\ngini = 0.408\nsamples = 21\nvalue = [15, 0, 6]\nclass = SW", fillcolor="#efb388"] ;
16 -> 17 ;
18 [label="μR <= 2.9\ngini = 0.278\nsamples = 18\nvalue = [15, 0, 3]\nclass = SW", fillcolor="#ea9a61"] ;
17 -> 18 ;
19 [label="gini = 0.0\nsamples = 14\nvalue = [14, 0, 0]\nclass = SW", fillcolor="#e58139"] ;
18 -> 19 ;
20 [label="σR <= 1.034\ngini = 0.375\nsamples = 4\nvalue = [1, 0, 3]\nclass = OP", fillcolor="#ab7bee"] ;
18 -> 20 ;
21 [label="gini = 0.0\nsamples = 3\nvalue = [0, 0, 3]\nclass = OP", fillcolor="#8139e5"] ;
20 -> 21 ;
22 [label="gini = 0.0\nsamples = 1\nvalue = [1, 0, 0]\nclass = SW", fillcolor="#e58139"] ;
20 -> 22 ;
23 [label="gini = 0.0\nsamples = 3\nvalue = [0, 0, 3]\nclass = OP", fillcolor="#8139e5"] ;
17 -> 23 ;
24 [label="gini = 0.0\nsamples = 9\nvalue = [0, 0, 9]\nclass = OP", fillcolor="#8139e5"] ;
16 -> 24 ;
}